<?xml version="1.0"?>
<opencv_storage>
<cascade>
  <stageType>BOOST</stageType>
  <featureType>HAAR</featureType>
  <height>24</height>
  <width>24</width>
  <stageParams>
    <boostType>GAB</boostType>
    <minHitRate>9.9989998340606689e-01</minHitRate>
    <maxFalseAlarm>3.0000001192092896e-01</maxFalseAlarm>
    <weightTrimRate>9.4999999999999996e-01</weightTrimRate>
    <maxDepth>1</maxDepth>
    <maxWeakCount>100</maxWeakCount></stageParams>
  <featureParams>
    <maxCatCount>0</maxCatCount>
    <featSize>1</featSize>
    <mode>BASIC</mode></featureParams>
  <stageNum>27</stageNum>
  <stages>
    <!-- stage 0 -->
    <_>
      <maxWeakCount>2</maxWeakCount>
      <stageThreshold>2.2642654180526733e-01</stageThreshold>
      <weakClassifiers>
        <_>
          <internalNodes>
            0 -1 92 -1.6973402351140976e-02</internalNodes>
          <leafValues>
            -6.0000002384185791e-01 8.0000001192092896e-01</leafValues></_>
        <_>
          <internalNodes>
            0 -1 9 -2.3530066013336182e-02</internalNodes>
          <leafValues>
            9.5433789491653442e-01 -5.7357347011566162e-01</leafValues></_></weakClassifiers></_>
    <!-- stage 1 -->
    <_>
      <maxWeakCount>1</maxWeakCount>
      <stageThreshold>7.5438594818115234e-01</stageThreshold>
      <weakClassifiers>
        <_>
          <internalNodes>
            0 -1 80 -4.9120604991912842e-02</internalNodes>
          <leafValues>
            -1. 7.5438594818115234e-01</leafValues></_></weakClassifiers></_>
    <!-- stage 2 -->
    <_>
      <maxWeakCount>3</maxWeakCount>
      <stageThreshold>6.8986690044403076e-01</stageThreshold>
      <weakClassifiers>
        <_>
          <internalNodes>
            0 -1 20 -7.2523223934695125e-04</internalNodes>
          <leafValues>
            -1. 6.6666668653488159e-01</leafValues></_>
        <_>
          <internalNodes>
            0 -1 24 6.6207570489495993e-04</internalNodes>
          <leafValues>
            6.7257064580917358e-01 -7.7716004848480225e-01</leafValues></_>
        <_>
          <internalNodes>
            0 -1 72 -3.7339767441153526e-03</internalNodes>
          <leafValues>
            8.7953007221221924e-01 -6.4937037229537964e-01</leafValues></_></weakClassifiers></_>
    <!-- stage 3 -->
    <_>
      <maxWeakCount>1</maxWeakCount>
      <stageThreshold>7.5438594818115234e-01</stageThreshold>
      <weakClassifiers>
        <_>
          <internalNodes>
            0 -1 75 -2.5355854630470276e-01</internalNodes>
          <leafValues>
            7.5438594818115234e-01 -1.</leafValues></_></weakClassifiers></_>
    <!-- stage 4 -->
    <_>
      <maxWeakCount>2</maxWeakCount>
      <stageThreshold>3.6398833990097046e-01</stageThreshold>
      <weakClassifiers>
        <_>
          <internalNodes>
            0 -1 78 -3.4195948392152786e-02</internalNodes>
          <leafValues>
            8.6666667461395264e-01 -4.6666666865348816e-01</leafValues></_>
        <_>
          <internalNodes>
            0 -1 46 4.7538167564198375e-05</internalNodes>
          <leafValues>
            8.5522079467773438e-01 -5.0267833471298218e-01</leafValues></_></weakClassifiers></_>
    <!-- stage 5 -->
    <_>
      <maxWeakCount>4</maxWeakCount>
      <stageThreshold>6.3679242134094238e-01</stageThreshold>
      <weakClassifiers>
        <_>
          <internalNodes>
            0 -1 81 -1.3741154223680496e-02</internalNodes>
          <leafValues>
            7.5999999046325684e-01 -5.1999998092651367e-01</leafValues></_>
        <_>
          <internalNodes>
            0 -1 34 1.0796006245072931e-04</internalNodes>
          <leafValues>
            -4.3939507007598877e-01 9.4619560241699219e-01</leafValues></_>
        <_>
          <internalNodes>
            0 -1 42 -5.1072804490104318e-04</internalNodes>
          <leafValues>
            8.7269896268844604e-01 -4.6606791019439697e-01</leafValues></_>
        <_>
          <internalNodes>
            0 -1 27 6.9005863042548299e-04</internalNodes>
          <leafValues>
            -5.5651146173477173e-01 9.5862329006195068e-01</leafValues></_></weakClassifiers></_>
    <!-- stage 6 -->
    <_>
      <maxWeakCount>3</maxWeakCount>
      <stageThreshold>7.0324406027793884e-02</stageThreshold>
      <weakClassifiers>
        <_>
          <internalNodes>
            0 -1 16 -1.7202945891767740e-03</internalNodes>
          <leafValues>
            9.4871795177459717e-01 -3.3333334326744080e-01</leafValues></_>
        <_>
          <internalNodes>
            0 -1 63 -3.5499855875968933e-02</internalNodes>
          <leafValues>
            8.8203132152557373e-01 -3.6169937252998352e-01</leafValues></_>
        <_>
          <internalNodes>
            0 -1 94 4.9939018208533525e-04</internalNodes>
          <leafValues>
            7.8742653131484985e-01 -4.7837355732917786e-01</leafValues></_></weakClassifiers></_>
    <!-- stage 7 -->
    <_>
      <maxWeakCount>4</maxWeakCount>
      <stageThreshold>3.3569520711898804e-01</stageThreshold>
      <weakClassifiers>
        <_>
          <internalNodes>
            0 -1 11 -4.1506427805870771e-04</internalNodes>
          <leafValues>
            7.5999999046325684e-01 -5.1999998092651367e-01</leafValues></_>
        <_>
          <internalNodes>
            0 -1 30 -2.3808337573427707e-04</internalNodes>
          <leafValues>
            -5.0775933265686035e-01 8.5821694135665894e-01</leafValues></_>
        <_>
          <internalNodes>
            0 -1 8 -1.8246036022901535e-02</internalNodes>
          <leafValues>
            6.2796652317047119e-01 -8.0820304155349731e-01</leafValues></_>
        <_>
          <internalNodes>
            0 -1 13 -1.4629123732447624e-02</internalNodes>
          <leafValues>
            9.0812188386917114e-01 -5.4451191425323486e-01</leafValues></_></weakClassifiers></_>
    <!-- stage 8 -->
    <_>
      <maxWeakCount>4</maxWeakCount>
      <stageThreshold>2.1355111896991730e-01</stageThreshold>
      <weakClassifiers>
        <_>
          <internalNodes>
            0 -1 58 1.7570647178217769e-03</internalNodes>
          <leafValues>
            7.5999999046325684e-01 -5.1999998092651367e-01</leafValues></_>
        <_>
          <internalNodes>
            0 -1 60 -4.8847984522581100e-02</internalNodes>
          <leafValues>
            -5.6433725357055664e-01 7.8576660156250000e-01</leafValues></_>
        <_>
          <internalNodes>
            0 -1 22 -1.2966230860911310e-04</internalNodes>
          <leafValues>
            7.1298444271087646e-01 -6.0937851667404175e-01</leafValues></_>
        <_>
          <internalNodes>
            0 -1 23 5.4301880300045013e-03</internalNodes>
          <leafValues>
            6.2726688385009766e-01 -6.9051188230514526e-01</leafValues></_></weakClassifiers></_>
    <!-- stage 9 -->
    <_>
      <maxWeakCount>5</maxWeakCount>
      <stageThreshold>1.6817396879196167e-01</stageThreshold>
      <weakClassifiers>
        <_>
          <internalNodes>
            0 -1 45 -1.3975937664508820e-01</internalNodes>
          <leafValues>
            -1. 6.3934427499771118e-01</leafValues></_>
        <_>
          <internalNodes>
            0 -1 50 -3.2060008496046066e-02</internalNodes>
          <leafValues>
            1. -4.4340491294860840e-01</leafValues></_>
        <_>
          <internalNodes>
            0 -1 86 1.8925399053841829e-03</internalNodes>
          <leafValues>
            -3.8404789566993713e-01 9.3658047914505005e-01</leafValues></_>
        <_>
          <internalNodes>
            0 -1 7 -7.6994132250547409e-03</internalNodes>
          <leafValues>
            8.6215424537658691e-01 -4.5905220508575439e-01</leafValues></_>
        <_>
          <internalNodes>
            0 -1 90 8.3773076767101884e-05</internalNodes>
          <leafValues>
            -5.0587177276611328e-01 8.2511466741561890e-01</leafValues></_></weakClassifiers></_>
    <!-- stage 10 -->
    <_>
      <maxWeakCount>3</maxWeakCount>
      <stageThreshold>2.6946151256561279e-01</stageThreshold>
      <weakClassifiers>
        <_>
          <internalNodes>
            0 -1 33 -3.2942824065685272e-02</internalNodes>
          <leafValues>
            1. -1.3636364042758942e-01</leafValues></_>
        <_>
          <internalNodes>
            0 -1 93 1.5103362966328859e-04</internalNodes>
          <leafValues>
            -4.0030324459075928e-01 8.1016224622726440e-01</leafValues></_>
        <_>
          <internalNodes>
            0 -1 56 -3.8806051015853882e-02</internalNodes>
          <leafValues>
            1. -3.3023524284362793e-01</leafValues></_></weakClassifiers></_>
    <!-- stage 11 -->
    <_>
      <maxWeakCount>4</maxWeakCount>
      <stageThreshold>1.6217540204524994e-01</stageThreshold>
      <weakClassifiers>
        <_>
          <internalNodes>
            0 -1 64 -3.8192764623090625e-04</internalNodes>
          <leafValues>
            -8.1818181276321411e-01 5.3125000000000000e-01</leafValues></_>
        <_>
          <internalNodes>
            0 -1 29 1.4923294074833393e-03</internalNodes>
          <leafValues>
            7.3650479316711426e-01 -5.2553409337997437e-01</leafValues></_>
        <_>
          <internalNodes>
            0 -1 59 -1.9542874360922724e-04</internalNodes>
          <leafValues>
            1. -3.9824625849723816e-01</leafValues></_>
        <_>
          <internalNodes>
            0 -1 53 -3.4024894237518311e-02</internalNodes>
          <leafValues>
            -6.4989882707595825e-01 5.5470573902130127e-01</leafValues></_></weakClassifiers></_>
    <!-- stage 12 -->
    <_>
      <maxWeakCount>4</maxWeakCount>
      <stageThreshold>3.3173266053199768e-01</stageThreshold>
      <weakClassifiers>
        <_>
          <internalNodes>
            0 -1 67 9.7286179661750793e-03</internalNodes>
          <leafValues>
            -2.9032257199287415e-01 7.7272725105285645e-01</leafValues></_>
        <_>
          <internalNodes>
            0 -1 40 2.6482218527235091e-04</internalNodes>
          <leafValues>
            -3.0428987741470337e-01 1.</leafValues></_>
        <_>
          <internalNodes>
            0 -1 36 -1.4402337837964296e-03</internalNodes>
          <leafValues>
            -7.1347081661224365e-01 5.6392312049865723e-01</leafValues></_>
        <_>
          <internalNodes>
            0 -1 51 -4.6474666305584833e-05</internalNodes>
          <leafValues>
            -7.0062786340713501e-01 7.1006923913955688e-01</leafValues></_></weakClassifiers></_>
    <!-- stage 13 -->
    <_>
      <maxWeakCount>3</maxWeakCount>
      <stageThreshold>8.6845755577087402e-02</stageThreshold>
      <weakClassifiers>
        <_>
          <internalNodes>
            0 -1 89 3.1482972553931177e-04</internalNodes>
          <leafValues>
            -9.0909093618392944e-02 9.3548387289047241e-01</leafValues></_>
        <_>
          <internalNodes>
            0 -1 62 3.5333706182427704e-04</internalNodes>
          <leafValues>
            -3.7858381867408752e-01 7.9421049356460571e-01</leafValues></_>
        <_>
          <internalNodes>
            0 -1 6 -1.1853820178657770e-03</internalNodes>
          <leafValues>
            8.7003505229949951e-01 -4.7005429863929749e-01</leafValues></_></weakClassifiers></_>
    <!-- stage 14 -->
    <_>
      <maxWeakCount>5</maxWeakCount>
      <stageThreshold>-1.7883928120136261e-01</stageThreshold>
      <weakClassifiers>
        <_>
          <internalNodes>
            0 -1 0 -4.4462922960519791e-03</internalNodes>
          <leafValues>
            -7.7777779102325439e-01 6.8421053886413574e-01</leafValues></_>
        <_>
          <internalNodes>
            0 -1 37 -1.8594823777675629e-02</internalNodes>
          <leafValues>
            9.5235204696655273e-01 -4.3472668528556824e-01</leafValues></_>
        <_>
          <internalNodes>
            0 -1 41 -3.6301971413195133e-03</internalNodes>
          <leafValues>
            -3.7937024235725403e-01 8.2219839096069336e-01</leafValues></_>
        <_>
          <internalNodes>
            0 -1 18 -6.1023212765576318e-05</internalNodes>
          <leafValues>
            -4.5789799094200134e-01 8.4760278463363647e-01</leafValues></_>
        <_>
          <internalNodes>
            0 -1 76 -2.9492235183715820e-01</internalNodes>
          <leafValues>
            -9.0324968099594116e-01 4.8385471105575562e-01</leafValues></_></weakClassifiers></_>
    <!-- stage 15 -->
    <_>
      <maxWeakCount>4</maxWeakCount>
      <stageThreshold>5.5084399878978729e-02</stageThreshold>
      <weakClassifiers>
        <_>
          <internalNodes>
            0 -1 5 1.2315283529460430e-02</internalNodes>
          <leafValues>
            -2.3529411852359772e-01 8.0487805604934692e-01</leafValues></_>
        <_>
          <internalNodes>
            0 -1 47 9.1302357614040375e-03</internalNodes>
          <leafValues>
            4.6599787473678589e-01 -9.3673199415206909e-01</leafValues></_>
        <_>
          <internalNodes>
            0 -1 14 -2.8022632002830505e-02</internalNodes>
          <leafValues>
            8.1933975219726563e-01 -4.3392270803451538e-01</leafValues></_>
        <_>
          <internalNodes>
            0 -1 49 -2.6651384541764855e-04</internalNodes>
          <leafValues>
            6.2086105346679688e-01 -5.9563803672790527e-01</leafValues></_></weakClassifiers></_>
    <!-- stage 16 -->
    <_>
      <maxWeakCount>4</maxWeakCount>
      <stageThreshold>3.2879108190536499e-01</stageThreshold>
      <weakClassifiers>
        <_>
          <internalNodes>
            0 -1 73 -1.0851575061678886e-03</internalNodes>
          <leafValues>
            9.4285714626312256e-01 -2.0000000298023224e-01</leafValues></_>
        <_>
          <internalNodes>
            0 -1 85 -2.4339039810001850e-03</internalNodes>
          <leafValues>
            8.0833053588867188e-01 -3.4548461437225342e-01</leafValues></_>
        <_>
          <internalNodes>
            0 -1 38 -2.2761985659599304e-02</internalNodes>
          <leafValues>
            -5.7808595895767212e-01 6.9891756772994995e-01</leafValues></_>
        <_>
          <internalNodes>
            0 -1 10 -3.7206837441772223e-04</internalNodes>
          <leafValues>
            -8.4431064128875732e-01 4.7687402367591858e-01</leafValues></_></weakClassifiers></_>
    <!-- stage 17 -->
    <_>
      <maxWeakCount>4</maxWeakCount>
      <stageThreshold>-2.5676253437995911e-01</stageThreshold>
      <weakClassifiers>
        <_>
          <internalNodes>
            0 -1 61 8.4400386549532413e-04</internalNodes>
          <leafValues>
            5.3846156597137451e-01 -1.</leafValues></_>
        <_>
          <internalNodes>
            0 -1 57 -1.7394500318914652e-03</internalNodes>
          <leafValues>
            7.7437198162078857e-01 -4.6152573823928833e-01</leafValues></_>
        <_>
          <internalNodes>
            0 -1 39 -1.2733567506074905e-02</internalNodes>
          <leafValues>
            5.1389473676681519e-01 -8.4568852186203003e-01</leafValues></_>
        <_>
          <internalNodes>
            0 -1 48 -2.7762757614254951e-02</internalNodes>
          <leafValues>
            -8.4759306907653809e-01 4.6760389208793640e-01</leafValues></_></weakClassifiers></_>
    <!-- stage 18 -->
    <_>
      <maxWeakCount>4</maxWeakCount>
      <stageThreshold>2.4321052432060242e-01</stageThreshold>
      <weakClassifiers>
        <_>
          <internalNodes>
            0 -1 71 -4.8802555538713932e-03</internalNodes>
          <leafValues>
            -1. 5.1515150070190430e-01</leafValues></_>
        <_>
          <internalNodes>
            0 -1 83 3.8494172622449696e-04</internalNodes>
          <leafValues>
            7.4872875213623047e-01 -5.6198686361312866e-01</leafValues></_>
        <_>
          <internalNodes>
            0 -1 25 -2.9370745178312063e-03</internalNodes>
          <leafValues>
            7.9046219587326050e-01 -5.2581608295440674e-01</leafValues></_>
        <_>
          <internalNodes>
            0 -1 15 -8.5971655789762735e-04</internalNodes>
          <leafValues>
            8.6277389526367188e-01 -4.9485370516777039e-01</leafValues></_></weakClassifiers></_>
    <!-- stage 19 -->
    <_>
      <maxWeakCount>4</maxWeakCount>
      <stageThreshold>2.6965194940567017e-01</stageThreshold>
      <weakClassifiers>
        <_>
          <internalNodes>
            0 -1 2 8.7315181735903025e-04</internalNodes>
          <leafValues>
            6.6666668653488159e-01 -5.2380955219268799e-01</leafValues></_>
        <_>
          <internalNodes>
            0 -1 43 -4.1090621380135417e-04</internalNodes>
          <leafValues>
            8.1925237178802490e-01 -5.2370208501815796e-01</leafValues></_>
        <_>
          <internalNodes>
            0 -1 91 3.1577557092532516e-04</internalNodes>
          <leafValues>
            5.8539623022079468e-01 -5.6179273128509521e-01</leafValues></_>
        <_>
          <internalNodes>
            0 -1 70 8.3834471297450364e-05</internalNodes>
          <leafValues>
            -4.5870885252952576e-01 9.0322172641754150e-01</leafValues></_></weakClassifiers></_>
    <!-- stage 20 -->
    <_>
      <maxWeakCount>5</maxWeakCount>
      <stageThreshold>2.0141017436981201e-01</stageThreshold>
      <weakClassifiers>
        <_>
          <internalNodes>
            0 -1 79 5.9648446040228009e-04</internalNodes>
          <leafValues>
            5.6666666269302368e-01 -6.0000002384185791e-01</leafValues></_>
        <_>
          <internalNodes>
            0 -1 3 4.6879939734935760e-02</internalNodes>
          <leafValues>
            -3.3003392815589905e-01 8.8401633501052856e-01</leafValues></_>
        <_>
          <internalNodes>
            0 -1 69 -1.4856873312965035e-03</internalNodes>
          <leafValues>
            9.4891965389251709e-01 -3.0000877380371094e-01</leafValues></_>
        <_>
          <internalNodes>
            0 -1 44 -1.1440278030931950e-03</internalNodes>
          <leafValues>
            7.7839910984039307e-01 -4.1838470101356506e-01</leafValues></_>
        <_>
          <internalNodes>
            0 -1 52 1.3556687918026000e-04</internalNodes>
          <leafValues>
            7.4828785657882690e-01 -5.1361292600631714e-01</leafValues></_></weakClassifiers></_>
    <!-- stage 21 -->
    <_>
      <maxWeakCount>4</maxWeakCount>
      <stageThreshold>1.9160668551921844e-01</stageThreshold>
      <weakClassifiers>
        <_>
          <internalNodes>
            0 -1 88 -2.2874912247061729e-03</internalNodes>
          <leafValues>
            -8.7500000000000000e-01 6.6101694107055664e-01</leafValues></_>
        <_>
          <internalNodes>
            0 -1 54 -2.6533384807407856e-03</internalNodes>
          <leafValues>
            7.2423589229583740e-01 -6.2006342411041260e-01</leafValues></_>
        <_>
          <internalNodes>
            0 -1 77 2.0259099546819925e-03</internalNodes>
          <leafValues>
            -4.2291593551635742e-01 9.0142339468002319e-01</leafValues></_>
        <_>
          <internalNodes>
            0 -1 84 -6.5725966123864055e-04</internalNodes>
          <leafValues>
            -5.7954162359237671e-01 7.6528674364089966e-01</leafValues></_></weakClassifiers></_>
    <!-- stage 22 -->
    <_>
      <maxWeakCount>4</maxWeakCount>
      <stageThreshold>2.5589242577552795e-01</stageThreshold>
      <weakClassifiers>
        <_>
          <internalNodes>
            0 -1 17 -3.2735303975641727e-03</internalNodes>
          <leafValues>
            -1. 5.6250000000000000e-01</leafValues></_>
        <_>
          <internalNodes>
            0 -1 87 -1.3543951790779829e-03</internalNodes>
          <leafValues>
            -4.3526521325111389e-01 8.8238459825515747e-01</leafValues></_>
        <_>
          <internalNodes>
            0 -1 55 -5.5378588149324059e-04</internalNodes>
          <leafValues>
            -6.3082897663116455e-01 6.4775085449218750e-01</leafValues></_>
        <_>
          <internalNodes>
            0 -1 35 5.8750454627443105e-05</internalNodes>
          <leafValues>
            8.7102586030960083e-01 -5.1909321546554565e-01</leafValues></_></weakClassifiers></_>
    <!-- stage 23 -->
    <_>
      <maxWeakCount>4</maxWeakCount>
      <stageThreshold>8.3516842126846313e-01</stageThreshold>
      <weakClassifiers>
        <_>
          <internalNodes>
            0 -1 4 -3.4327334724366665e-03</internalNodes>
          <leafValues>
            -7.3333334922790527e-01 6.0000002384185791e-01</leafValues></_>
        <_>
          <internalNodes>
            0 -1 12 6.9930189056321979e-05</internalNodes>
          <leafValues>
            5.1335674524307251e-01 -7.4969661235809326e-01</leafValues></_>
        <_>
          <internalNodes>
            0 -1 95 3.8415088783949614e-04</internalNodes>
          <leafValues>
            5.7870036363601685e-01 -6.5020954608917236e-01</leafValues></_>
        <_>
          <internalNodes>
            0 -1 19 -4.9792596837505698e-04</internalNodes>
          <leafValues>
            -7.6170277595520020e-01 4.7644469141960144e-01</leafValues></_></weakClassifiers></_>
    <!-- stage 24 -->
    <_>
      <maxWeakCount>3</maxWeakCount>
      <stageThreshold>1.8137034773826599e-01</stageThreshold>
      <weakClassifiers>
        <_>
          <internalNodes>
            0 -1 65 -3.7526467349380255e-04</internalNodes>
          <leafValues>
            8.8235294818878174e-01 -1.2195122241973877e-01</leafValues></_>
        <_>
          <internalNodes>
            0 -1 66 1.0792998597025871e-02</internalNodes>
          <leafValues>
            -3.5964924097061157e-01 7.9267758131027222e-01</leafValues></_>
        <_>
          <internalNodes>
            0 -1 32 -4.8408832401037216e-02</internalNodes>
          <leafValues>
            9.2237842082977295e-01 -3.4133335947990417e-01</leafValues></_></weakClassifiers></_>
    <!-- stage 25 -->
    <_>
      <maxWeakCount>5</maxWeakCount>
      <stageThreshold>1.0613963752985001e-01</stageThreshold>
      <weakClassifiers>
        <_>
          <internalNodes>
            0 -1 28 -2.4602621793746948e-02</internalNodes>
          <leafValues>
            -6.8421053886413574e-01 6.7857140302658081e-01</leafValues></_>
        <_>
          <internalNodes>
            0 -1 31 -7.8135519288480282e-04</internalNodes>
          <leafValues>
            9.4446134567260742e-01 -3.5201063752174377e-01</leafValues></_>
        <_>
          <internalNodes>
            0 -1 74 -7.3840506374835968e-03</internalNodes>
          <leafValues>
            1. -2.9310089349746704e-01</leafValues></_>
        <_>
          <internalNodes>
            0 -1 71 1.0121982631972060e-04</internalNodes>
          <leafValues>
            8.8585978746414185e-01 -4.2713594436645508e-01</leafValues></_>
        <_>
          <internalNodes>
            0 -1 1 1.2759878300130367e-03</internalNodes>
          <leafValues>
            4.9981567263603210e-01 -8.6478304862976074e-01</leafValues></_></weakClassifiers></_>
    <!-- stage 26 -->
    <_>
      <maxWeakCount>4</maxWeakCount>
      <stageThreshold>3.5531091690063477e-01</stageThreshold>
      <weakClassifiers>
        <_>
          <internalNodes>
            0 -1 82 -2.3315422004088759e-04</internalNodes>
          <leafValues>
            8.4615385532379150e-01 -2.2222222387790680e-01</leafValues></_>
        <_>
          <internalNodes>
            0 -1 68 2.0019261166453362e-02</internalNodes>
          <leafValues>
            -3.0487164855003357e-01 1.</leafValues></_>
        <_>
          <internalNodes>
            0 -1 26 -1.2069682590663433e-02</internalNodes>
          <leafValues>
            -8.8676565885543823e-01 5.2461022138595581e-01</leafValues></_>
        <_>
          <internalNodes>
            0 -1 21 1.4116970123723149e-04</internalNodes>
          <leafValues>
            -6.0407727956771851e-01 8.3032876253128052e-01</leafValues></_></weakClassifiers></_></stages>
  <features>
    <_>
      <rects>
        <_>
          0 0 2 24 -1.</_>
        <_>
          0 0 1 12 2.</_>
        <_>
          1 12 1 12 2.</_></rects>
      <tilted>0</tilted></_>
    <_>
      <rects>
        <_>
          0 1 2 3 -1.</_>
        <_>
          1 1 1 3 2.</_></rects>
      <tilted>0</tilted></_>
    <_>
      <rects>
        <_>
          0 2 2 4 -1.</_>
        <_>
          0 2 1 2 2.</_>
        <_>
          1 4 1 2 2.</_></rects>
      <tilted>0</tilted></_>
    <_>
      <rects>
        <_>
          0 2 10 20 -1.</_>
        <_>
          0 2 5 10 2.</_>
        <_>
          5 12 5 10 2.</_></rects>
      <tilted>0</tilted></_>
    <_>
      <rects>
        <_>
          0 3 2 6 -1.</_>
        <_>
          1 3 1 6 2.</_></rects>
      <tilted>0</tilted></_>
    <_>
      <rects>
        <_>
          0 3 12 16 -1.</_>
        <_>
          0 3 6 8 2.</_>
        <_>
          6 11 6 8 2.</_></rects>
      <tilted>0</tilted></_>
    <_>
      <rects>
        <_>
          0 7 4 6 -1.</_>
        <_>
          0 7 2 3 2.</_>
        <_>
          2 10 2 3 2.</_></rects>
      <tilted>0</tilted></_>
    <_>
      <rects>
        <_>
          0 8 4 8 -1.</_>
        <_>
          0 12 4 4 2.</_></rects>
      <tilted>0</tilted></_>
    <_>
      <rects>
        <_>
          0 8 20 10 -1.</_>
        <_>
          0 13 20 5 2.</_></rects>
      <tilted>0</tilted></_>
    <_>
      <rects>
        <_>
          0 10 7 8 -1.</_>
        <_>
          0 14 7 4 2.</_></rects>
      <tilted>0</tilted></_>
    <_>
      <rects>
        <_>
          0 14 2 3 -1.</_>
        <_>
          1 14 1 3 2.</_></rects>
      <tilted>0</tilted></_>
    <_>
      <rects>
        <_>
          0 14 11 2 -1.</_>
        <_>
          0 15 11 1 2.</_></rects>
      <tilted>0</tilted></_>
    <_>
      <rects>
        <_>
          0 14 12 2 -1.</_>
        <_>
          0 15 12 1 2.</_></rects>
      <tilted>0</tilted></_>
    <_>
      <rects>
        <_>
          0 20 22 4 -1.</_>
        <_>
          0 22 22 2 2.</_></rects>
      <tilted>0</tilted></_>
    <_>
      <rects>
        <_>
          1 3 16 10 -1.</_>
        <_>
          1 3 8 5 2.</_>
        <_>
          9 8 8 5 2.</_></rects>
      <tilted>0</tilted></_>
    <_>
      <rects>
        <_>
          1 4 4 2 -1.</_>
        <_>
          3 4 2 2 2.</_></rects>
      <tilted>0</tilted></_>
    <_>
      <rects>
        <_>
          1 4 10 2 -1.</_>
        <_>
          6 4 5 2 2.</_></rects>
      <tilted>0</tilted></_>
    <_>
      <rects>
        <_>
          1 10 2 8 -1.</_>
        <_>
          1 10 1 4 2.</_>
        <_>
          2 14 1 4 2.</_></rects>
      <tilted>0</tilted></_>
    <_>
      <rects>
        <_>
          1 10 2 2 -1.</_>
        <_>
          1 11 2 1 2.</_></rects>
      <tilted>0</tilted></_>
    <_>
      <rects>
        <_>
          1 13 2 2 -1.</_>
        <_>
          2 13 1 2 2.</_></rects>
      <tilted>0</tilted></_>
    <_>
      <rects>
        <_>
          1 15 2 2 -1.</_>
        <_>
          1 15 1 1 2.</_>
        <_>
          2 16 1 1 2.</_></rects>
      <tilted>0</tilted></_>
    <_>
      <rects>
        <_>
          1 17 2 3 -1.</_>
        <_>
          2 17 1 3 2.</_></rects>
      <tilted>0</tilted></_>
    <_>
      <rects>
        <_>
          2 9 4 2 -1.</_>
        <_>
          2 9 2 1 2.</_>
        <_>
          4 10 2 1 2.</_></rects>
      <tilted>0</tilted></_>
    <_>
      <rects>
        <_>
          2 12 10 3 -1.</_>
        <_>
          7 12 5 3 2.</_></rects>
      <tilted>0</tilted></_>
    <_>
      <rects>
        <_>
          2 23 2 1 -1.</_>
        <_>
          3 23 1 1 2.</_></rects>
      <tilted>0</tilted></_>
    <_>
      <rects>
        <_>
          3 0 6 6 -1.</_>
        <_>
          3 0 3 3 2.</_>
        <_>
          6 3 3 3 2.</_></rects>
      <tilted>0</tilted></_>
    <_>
      <rects>
        <_>
          3 1 4 10 -1.</_>
        <_>
          3 1 2 5 2.</_>
        <_>
          5 6 2 5 2.</_></rects>
      <tilted>0</tilted></_>
    <_>
      <rects>
        <_>
          3 3 5 2 -1.</_>
        <_>
          3 4 5 1 2.</_></rects>
      <tilted>0</tilted></_>
    <_>
      <rects>
        <_>
          3 9 21 4 -1.</_>
        <_>
          3 11 21 2 2.</_></rects>
      <tilted>0</tilted></_>
    <_>
      <rects>
        <_>
          3 12 4 9 -1.</_>
        <_>
          5 12 2 9 2.</_></rects>
      <tilted>0</tilted></_>
    <_>
      <rects>
        <_>
          3 13 10 4 -1.</_>
        <_>
          3 13 5 2 2.</_>
        <_>
          8 15 5 2 2.</_></rects>
      <tilted>0</tilted></_>
    <_>
      <rects>
        <_>
          4 2 8 2 -1.</_>
        <_>
          4 2 4 1 2.</_>
        <_>
          8 3 4 1 2.</_></rects>
      <tilted>0</tilted></_>
    <_>
      <rects>
        <_>
          4 2 16 14 -1.</_>
        <_>
          4 2 8 7 2.</_>
        <_>
          12 9 8 7 2.</_></rects>
      <tilted>0</tilted></_>
    <_>
      <rects>
        <_>
          4 4 8 10 -1.</_>
        <_>
          8 4 4 10 2.</_></rects>
      <tilted>0</tilted></_>
    <_>
      <rects>
        <_>
          4 5 2 4 -1.</_>
        <_>
          4 7 2 2 2.</_></rects>
      <tilted>0</tilted></_>
    <_>
      <rects>
        <_>
          4 12 2 4 -1.</_>
        <_>
          5 12 1 4 2.</_></rects>
      <tilted>0</tilted></_>
    <_>
      <rects>
        <_>
          4 16 2 6 -1.</_>
        <_>
          4 16 1 3 2.</_>
        <_>
          5 19 1 3 2.</_></rects>
      <tilted>0</tilted></_>
    <_>
      <rects>
        <_>
          5 3 6 16 -1.</_>
        <_>
          8 3 3 16 2.</_></rects>
      <tilted>0</tilted></_>
    <_>
      <rects>
        <_>
          5 10 8 11 -1.</_>
        <_>
          9 10 4 11 2.</_></rects>
      <tilted>0</tilted></_>
    <_>
      <rects>
        <_>
          5 10 10 14 -1.</_>
        <_>
          5 17 10 7 2.</_></rects>
      <tilted>0</tilted></_>
    <_>
      <rects>
        <_>
          5 11 6 1 -1.</_>
        <_>
          8 11 3 1 2.</_></rects>
      <tilted>0</tilted></_>
    <_>
      <rects>
        <_>
          5 14 3 6 -1.</_>
        <_>
          5 17 3 3 2.</_></rects>
      <tilted>0</tilted></_>
    <_>
      <rects>
        <_>
          5 17 4 2 -1.</_>
        <_>
          5 18 4 1 2.</_></rects>
      <tilted>0</tilted></_>
    <_>
      <rects>
        <_>
          5 22 2 2 -1.</_>
        <_>
          5 23 2 1 2.</_></rects>
      <tilted>0</tilted></_>
    <_>
      <rects>
        <_>
          6 1 12 2 -1.</_>
        <_>
          6 1 6 1 2.</_>
        <_>
          12 2 6 1 2.</_></rects>
      <tilted>0</tilted></_>
    <_>
      <rects>
        <_>
          6 4 18 20 -1.</_>
        <_>
          15 4 9 20 2.</_></rects>
      <tilted>0</tilted></_>
    <_>
      <rects>
        <_>
          6 9 2 15 -1.</_>
        <_>
          7 9 1 15 2.</_></rects>
      <tilted>0</tilted></_>
    <_>
      <rects>
        <_>
          6 12 7 12 -1.</_>
        <_>
          6 18 7 6 2.</_></rects>
      <tilted>0</tilted></_>
    <_>
      <rects>
        <_>
          6 16 18 4 -1.</_>
        <_>
          6 18 18 2 2.</_></rects>
      <tilted>0</tilted></_>
    <_>
      <rects>
        <_>
          7 0 4 6 -1.</_>
        <_>
          7 0 2 3 2.</_>
        <_>
          9 3 2 3 2.</_></rects>
      <tilted>0</tilted></_>
    <_>
      <rects>
        <_>
          7 2 14 8 -1.</_>
        <_>
          7 6 14 4 2.</_></rects>
      <tilted>0</tilted></_>
    <_>
      <rects>
        <_>
          7 3 8 2 -1.</_>
        <_>
          7 3 4 1 2.</_>
        <_>
          11 4 4 1 2.</_></rects>
      <tilted>0</tilted></_>
    <_>
      <rects>
        <_>
          7 4 4 6 -1.</_>
        <_>
          7 4 2 3 2.</_>
        <_>
          9 7 2 3 2.</_></rects>
      <tilted>0</tilted></_>
    <_>
      <rects>
        <_>
          7 4 9 1 -1.</_>
        <_>
          10 4 3 1 2.</_></rects>
      <tilted>0</tilted></_>
    <_>
      <rects>
        <_>
          7 4 16 12 -1.</_>
        <_>
          7 10 16 6 2.</_></rects>
      <tilted>0</tilted></_>
    <_>
      <rects>
        <_>
          7 11 2 2 -1.</_>
        <_>
          8 11 1 2 2.</_></rects>
      <tilted>0</tilted></_>
    <_>
      <rects>
        <_>
          8 1 10 8 -1.</_>
        <_>
          8 5 10 4 2.</_></rects>
      <tilted>0</tilted></_>
    <_>
      <rects>
        <_>
          8 3 4 4 -1.</_>
        <_>
          8 5 4 2 2.</_></rects>
      <tilted>0</tilted></_>
    <_>
      <rects>
        <_>
          8 6 2 14 -1.</_>
        <_>
          9 6 1 14 2.</_></rects>
      <tilted>0</tilted></_>
    <_>
      <rects>
        <_>
          8 18 2 1 -1.</_>
        <_>
          9 18 1 1 2.</_></rects>
      <tilted>0</tilted></_>
    <_>
      <rects>
        <_>
          9 8 8 12 -1.</_>
        <_>
          9 14 8 6 2.</_></rects>
      <tilted>0</tilted></_>
    <_>
      <rects>
        <_>
          9 9 2 1 -1.</_>
        <_>
          10 9 1 1 2.</_></rects>
      <tilted>0</tilted></_>
    <_>
      <rects>
        <_>
          9 13 6 4 -1.</_>
        <_>
          9 13 3 2 2.</_>
        <_>
          12 15 3 2 2.</_></rects>
      <tilted>0</tilted></_>
    <_>
      <rects>
        <_>
          10 2 11 10 -1.</_>
        <_>
          10 7 11 5 2.</_></rects>
      <tilted>0</tilted></_>
    <_>
      <rects>
        <_>
          11 17 2 2 -1.</_>
        <_>
          11 17 1 1 2.</_>
        <_>
          12 18 1 1 2.</_></rects>
      <tilted>0</tilted></_>
    <_>
      <rects>
        <_>
          11 22 10 2 -1.</_>
        <_>
          11 22 5 1 2.</_>
        <_>
          16 23 5 1 2.</_></rects>
      <tilted>0</tilted></_>
    <_>
      <rects>
        <_>
          12 4 6 14 -1.</_>
        <_>
          15 4 3 14 2.</_></rects>
      <tilted>0</tilted></_>
    <_>
      <rects>
        <_>
          12 9 8 10 -1.</_>
        <_>
          16 9 4 10 2.</_></rects>
      <tilted>0</tilted></_>
    <_>
      <rects>
        <_>
          12 11 12 3 -1.</_>
        <_>
          18 11 6 3 2.</_></rects>
      <tilted>0</tilted></_>
    <_>
      <rects>
        <_>
          12 15 10 2 -1.</_>
        <_>
          12 15 5 1 2.</_>
        <_>
          17 16 5 1 2.</_></rects>
      <tilted>0</tilted></_>
    <_>
      <rects>
        <_>
          12 17 12 6 -1.</_>
        <_>
          12 17 6 3 2.</_>
        <_>
          18 20 6 3 2.</_></rects>
      <tilted>0</tilted></_>
    <_>
      <rects>
        <_>
          13 7 8 2 -1.</_>
        <_>
          13 7 4 1 2.</_>
        <_>
          17 8 4 1 2.</_></rects>
      <tilted>0</tilted></_>
    <_>
      <rects>
        <_>
          13 16 7 4 -1.</_>
        <_>
          13 18 7 2 2.</_></rects>
      <tilted>0</tilted></_>
    <_>
      <rects>
        <_>
          13 21 6 2 -1.</_>
        <_>
          13 22 6 1 2.</_></rects>
      <tilted>0</tilted></_>
    <_>
      <rects>
        <_>
          14 0 4 9 -1.</_>
        <_>
          16 0 2 9 2.</_></rects>
      <tilted>0</tilted></_>
    <_>
      <rects>
        <_>
          14 0 9 12 -1.</_>
        <_>
          17 0 3 12 2.</_></rects>
      <tilted>0</tilted></_>
    <_>
      <rects>
        <_>
          14 11 7 12 -1.</_>
        <_>
          14 15 7 4 2.</_></rects>
      <tilted>0</tilted></_>
    <_>
      <rects>
        <_>
          15 11 4 3 -1.</_>
        <_>
          17 11 2 3 2.</_></rects>
      <tilted>0</tilted></_>
    <_>
      <rects>
        <_>
          15 12 9 12 -1.</_>
        <_>
          15 18 9 6 2.</_></rects>
      <tilted>0</tilted></_>
    <_>
      <rects>
        <_>
          15 16 2 1 -1.</_>
        <_>
          16 16 1 1 2.</_></rects>
      <tilted>0</tilted></_>
    <_>
      <rects>
        <_>
          16 11 1 12 -1.</_>
        <_>
          16 15 1 4 2.</_></rects>
      <tilted>0</tilted></_>
    <_>
      <rects>
        <_>
          16 13 7 8 -1.</_>
        <_>
          16 17 7 4 2.</_></rects>
      <tilted>0</tilted></_>
    <_>
      <rects>
        <_>
          16 20 1 2 -1.</_>
        <_>
          16 21 1 1 2.</_></rects>
      <tilted>0</tilted></_>
    <_>
      <rects>
        <_>
          17 1 2 2 -1.</_>
        <_>
          18 1 1 2 2.</_></rects>
      <tilted>0</tilted></_>
    <_>
      <rects>
        <_>
          17 2 2 2 -1.</_>
        <_>
          17 3 2 1 2.</_></rects>
      <tilted>0</tilted></_>
    <_>
      <rects>
        <_>
          17 16 1 8 -1.</_>
        <_>
          17 20 1 4 2.</_></rects>
      <tilted>0</tilted></_>
    <_>
      <rects>
        <_>
          18 0 2 24 -1.</_>
        <_>
          18 0 1 12 2.</_>
        <_>
          19 12 1 12 2.</_></rects>
      <tilted>0</tilted></_>
    <_>
      <rects>
        <_>
          18 5 6 12 -1.</_>
        <_>
          18 5 3 6 2.</_>
        <_>
          21 11 3 6 2.</_></rects>
      <tilted>0</tilted></_>
    <_>
      <rects>
        <_>
          18 13 2 6 -1.</_>
        <_>
          19 13 1 6 2.</_></rects>
      <tilted>0</tilted></_>
    <_>
      <rects>
        <_>
          19 1 5 2 -1.</_>
        <_>
          19 2 5 1 2.</_></rects>
      <tilted>0</tilted></_>
    <_>
      <rects>
        <_>
          19 12 4 2 -1.</_>
        <_>
          19 13 4 1 2.</_></rects>
      <tilted>0</tilted></_>
    <_>
      <rects>
        <_>
          19 18 2 4 -1.</_>
        <_>
          19 18 1 2 2.</_>
        <_>
          20 20 1 2 2.</_></rects>
      <tilted>0</tilted></_>
    <_>
      <rects>
        <_>
          20 5 4 10 -1.</_>
        <_>
          20 10 4 5 2.</_></rects>
      <tilted>0</tilted></_>
    <_>
      <rects>
        <_>
          20 16 4 4 -1.</_>
        <_>
          20 16 2 2 2.</_>
        <_>
          22 18 2 2 2.</_></rects>
      <tilted>0</tilted></_>
    <_>
      <rects>
        <_>
          21 2 2 15 -1.</_>
        <_>
          22 2 1 15 2.</_></rects>
      <tilted>0</tilted></_>
    <_>
      <rects>
        <_>
          22 10 2 6 -1.</_>
        <_>
          22 10 1 3 2.</_>
        <_>
          23 13 1 3 2.</_></rects>
      <tilted>0</tilted></_></features></cascade>
</opencv_storage>
