<?xml version="1.0"?>
<opencv_storage>
<stage25>
  <maxWeakCount>5</maxWeakCount>
  <stageThreshold>1.0613963752985001e-01</stageThreshold>
  <weakClassifiers>
    <_>
      <internalNodes>
        0 -1 45532 -2.4602621793746948e-02</internalNodes>
      <leafValues>
        -6.8421053886413574e-01 6.7857140302658081e-01</leafValues></_>
    <_>
      <internalNodes>
        0 -1 51441 -7.8135519288480282e-04</internalNodes>
      <leafValues>
        9.4446134567260742e-01 -3.5201063752174377e-01</leafValues></_>
    <_>
      <internalNodes>
        0 -1 133876 -7.3840506374835968e-03</internalNodes>
      <leafValues>
        1. -2.9310089349746704e-01</leafValues></_>
    <_>
      <internalNodes>
        0 -1 131053 1.0121982631972060e-04</internalNodes>
      <leafValues>
        8.8585978746414185e-01 -4.2713594436645508e-01</leafValues></_>
    <_>
      <internalNodes>
        0 -1 1114 1.2759878300130367e-03</internalNodes>
      <leafValues>
        4.9981567263603210e-01 -8.6478304862976074e-01</leafValues></_></weakClassifiers></stage25>
</opencv_storage>
